
4.8757113884504255 -1.275944554836113 -4.412344565202634 -3.6209202125190805 -2.5748505407203632 -1.2206569573376496 1.6571936992183585 1.3759585283036564 4.555573910714496 -0.17607504265470053 
3.3800741408473836 2.9232040975190907 1.1591997462074068 -3.2419081121747664 1.5976722576858062 0.9905770521681313 4.085982084590571 -2.0283855128851753 2.529214209440135 -0.1977530212724709 
-4.917528785839563 3.840881456432396 5.629301573446359 3.1920574674179276 -1.623877408542103 -4.360864603805293 4.068822351440508 2.662801873294772 -0.6518338640695812 0.11192886705904746 
2.3261344310339283 -0.7040603116009055 -2.0068498058261053 0.09711331356883822 -1.5124757806539122 3.799558976137943 -4.354198164061463 3.1314610153674862 -4.381893193644891 -2.1893395586093876 
0.051718102608509876 2.7579170408535614 -2.0640089146832676 4.840612250376757 -0.05104334492981713 -3.3955997285301582 2.4895011022603835 -2.9429669386057946 2.6715583712724817 -1.962862879663511 
4.065999603946328 2.934791128459941 2.2526326205810165 3.1386965505421367 -1.422491761882753 -1.5234933809222384 3.7764190411454845 2.012959016463532 4.614907552143779 -0.9400375791966517 
-3.5915350470564085 3.9988067223076973 1.193125734281264 3.942347252279519 -4.266221429093531 4.187365485579801 -1.319188567773968 -3.6230303456050508 -4.192062465530169 2.77405353903007 
-0.6658659147510735 -2.1140769086444284 6.081669474595765 0.5082709812996166 3.4067147673431 1.494972456277724 -2.170479054369872 -4.93744107782353 2.7284591238836344 0.9994167966360574 
-2.036584563677454 0.4413473672144724 2.5745982615551104 2.891603485454105 -4.148876260803538 -1.2756516796793236 -1.710388148703428 1.560024444584119 2.886559919493266 4.819554181110895 
0.0023431317248908 1.977055877959418 4.468047264532973 5.228771779553087 -3.7012783247578662 0.48712784423641703 -1.0532431428942812 3.1690950393697626 0.5946026620227429 3.4254933264674277 
0.6351908215807507 4.855356216054559 2.7743799921239094 5.134734949778424 -2.872213210427367 2.4590867293330416 3.52667385191003 -4.930664529218889 -1.107394187450997 -4.162519149285031 
2.640841058421554 4.991753106390673 1.617857743828863 0.7124234905916571 3.547054104086567 4.997643209572335 -3.342336998179199 1.632606758429766 3.3309811558322306 3.1827311616503735 
2.4284325535920175 2.980520335025671 2.4356173238568375 4.7988719535453495 4.7727905670131525 -0.46191691861959255 -2.8416638646906263 4.140579120573753 2.106208833016292 3.8595406769655254 
-3.7637561609507006 -3.7753366015470657 3.1416352555821168 0.8691395418470755 -1.4433558595528655 -3.150670416878105 1.902212581910523 3.7692169552027908 -3.081711870725704 -3.196061773672903 
-2.4892289018772176 4.155132896959046 0.15240684877311808 0.27464289093175553 -3.747580665671554 -1.0597296893610206 -4.590371136989945 1.6696423661188282 -2.990503578355597 2.9067187891721735 
0.10829833474117587 -1.5911193542539268 -4.199062772923008 1.7376523483121071 0.48077853431966194 -1.863268661329188 4.890785549482261 5.088133430258261 1.2847378029959864 -1.954527623187237 
2.617443969294251 1.0995596132887757 -1.2214896845193095 -2.6079921067998715 -4.812294871469522 3.151815226668367 3.885856872884714 0.3813181262581717 1.4103037098558764 1.9062047864751004 
-3.264785530564359 -3.387284210705337 -1.4153637332467082 -0.4269201583458099 0.005137294320165221 -0.6599621946789925 2.7194062679823543 0.6907106972616514 -3.693432895611248 2.4737628239620646 
-1.4633279079872794 2.2018834583857325 5.189758435590916 2.471118494861774 0.07282586037686455 0.9648027855360017 0.6180092326746663 1.8744672301117768 1.4638377382313337 -3.517022094923726 
4.285029554556844 4.352691988883695 2.795289521311948 -1.9173090270593043 -0.26244081428048593 -2.6365605960207628 0.7557989858356371 3.221073927513919 -2.5841554500260764 -4.296690296148487 
-3.9199885077638856 3.4760782512508848 4.3265861019156535 4.123270313692113 4.791356160489941 3.7328511906704787 2.7092374171176656 -3.1530666200609714 1.1970588329920013 1.938104126514076 
-0.8818841977767922 -4.707067585750421 5.080483718527206 -2.2845677404487255 1.79910513417196 4.927498387015101 1.616242744091808 -3.799113680105491 -1.423596296151437 -3.931113038313624 
-2.7300166837325923 2.528421783781418 -3.543253788281539 0.6978141101749014 1.5206514812718142 -2.080779868981921 3.0013430245895414 1.6035473839713579 -1.5798091891458699 4.289542027312859 
4.3268838057486105 -3.827416517964938 -0.4042599125214223 -0.5652937681655579 0.49894030769005854 1.1807409964653013 2.307362982993453 -5.284376233396752 3.2012574003476417 -1.8299099012825104 
3.159535916666356 -1.2690073422716923 -2.3473118076837127 1.81679948264699 -2.765004517213416 -4.337217761147128 3.9488515081457494 3.618855587495999 -4.546260732537362 2.323723509050392 
4.181856524024119 -2.680045791345928 -0.020477473335318366 0.8465069088341897 2.6168532831549025 3.4260525911553223 2.9995153713200318 2.7597821744705295 -2.8215385951540894 1.222348606900067 
3.3972802960049724 -1.4212868449801808 1.8262666346262098 -0.384114988033606 3.942571301860016 3.134217938780969 0.4527688250081344 1.9176114939712388 -4.671517342592245 0.5680017687641365 
-0.02159887113875051 3.9438928871449184 0.16100617794425848 -3.2700812468790694 2.113012435143348 2.1683975688466606 2.4132551418898336 -3.901667749338422 0.4489761346188836 -4.813684069406536 
0.6636060997779372 2.3466850882518857 -1.3808887401697405 4.134568885892671 -0.6674981835043424 3.216741220114221 -4.197517401635124 3.6547544202679285 0.7244808959165808 -0.09664702655373458 
0.2910548345558963 -3.801967382219092 0.9612655244571044 -3.521959173363312 -3.4802073349716527 2.20271117106501 -2.467438036582722 3.9890260305682737 -3.5838208673231393 4.221705734570895 
-2.271593344814568 1.7066476822860717 -2.5437802454604115 -5.29911153124609 4.059175296153707 -5.114504128078883 4.159700796840968 -4.589066066634667 -5.385355505179326 -3.37359135981515 
-3.040703293308213 2.163542518923195 4.523145996746481 3.6697716135684857 0.9184948055744216 1.7440554725346178 1.0248319674134423 4.811199646458853 -1.9697200162828377 -0.13724839421270849 
-0.29718469394434005 -4.539096028462812 -2.94519120545867 -4.622688509794068 -0.4675429319598478 4.530787578497817 1.2913617644801723 -2.0337589132978025 4.677044527592685 -2.5898576253004157 
0.16674211762107227 0.6044469083734824 2.851290148769815 -2.7771711926377503 -1.4002228633678524 3.7293352717714243 0.4205901325603652 -5.480270083417711 0.7209578850336424 -0.2994728723776106 
-2.908063503839937 3.0763860240137952 3.2590578959137098 -5.09467736399095 3.1544322517568113 0.3064869062099913 -4.327235515706401 -4.250443146318185 -4.295031627050329 0.13707983630778808 
2.1406590681219515 1.8940288827906067 4.23628136989671 0.8098357412597185 -3.33697180082242 -3.9517582457762073 4.263235213644389 2.453314179586186 3.1943831496682407 1.9327779350127439 
3.1416478123969416 -4.614067288120175 2.981945654408383 3.3078448323068854 2.522946682999203 -2.77905501998474 -0.2711001563251503 0.4623781998194588 -0.2343684002941452 -3.150414626944022 
2.374039815004742 -4.521477125682469 1.8612860369169932 2.421778393074082 -3.958453422264963 4.260873266575707 -1.3237366399748696 2.0407272545208723 1.4221276488452415 -2.0081227859710227 
1.745336137004615 3.731813869467216 0.2862816292842681 -0.7140229274970918 -0.7732596334477168 3.4554422698476075 2.945407386676297 -2.4408512502166086 -3.0630047381420775 0.25143023406711007 
3.4273400927268245 -0.43664840003768646 1.045627826444557 1.7655497018744122 -0.9623515999804623 -4.834507677901191 1.8337694818733958 -2.8220933971389774 -0.6412248513428873 3.5209031744359853 
0.22309134419583002 -1.6124425026105602 0.34419730629300777 -1.247645760138388 1.381204840498094 -3.12444783407953 0.3005171861296269 -0.16244257093464598 -5.013849920415399 -2.489834932318169 
2.23236453465916 -0.788862371087773 -4.017760222412875 2.424456011786991 -4.247764113859149 -1.8055399979185551 5.027718809635358 -1.347543214054186 1.0195421716472135 -0.5677162095792572 
-1.1719211218814827 0.9652131925283768 -4.733441280398286 0.32596082615875216 -3.0487858416975837 0.9422989269943933 3.179330588446377 0.33061185880624333 -0.7721701123156355 -2.0659772200484303 
4.475783929006964 1.0106325857254355 -4.388131270999038 -4.69720670621488 -2.2667819634578685 -1.059190613774062 1.303274636347528 1.3448732263895087 -4.41652472141861 3.815216387584504 
-0.1992383336769482 0.9406440718690514 -3.833280363810665 -2.173128443106394 2.1816975410520696 2.118808474955274 2.451004072048518 -3.41269503617453 -3.988778274093562 1.3845070745180137 
2.5856021415348507 -3.1279994005579512 0.17026753199751918 0.41653594088878865 -1.8653215040937803 0.48986764315955517 2.29846117271902 -0.09180188552451451 0.58876120482124 3.7947080967190607 
-2.1814920097808703 -3.6532861362267535 1.378272942853976 3.8852380011055674 -3.2253528329178107 1.3592058284200832 -1.6306675390151357 2.9286418799949363 -1.4079823404107128 0.8972087017311113 
-3.506651223439132 -3.43631447723367 -1.2657739466471698 0.3413241342708604 5.033201721124255 -0.07046176819221008 -3.1304042501414906 -1.2170415033400184 -4.962717028423469 3.7366932450078054 
-3.600654450411456 -0.9391228455794727 1.4629139842867411 0.6682566960968178 3.9599104206120637 2.474556191074027 3.322088894618145 1.1913491800511768 -4.251488627768437 0.6290579125271126 
-3.894620861741025 2.919981841491858 -0.34722493338270294 1.3896774531187461 0.18444860164594798 -0.0024252403370236477 2.5233242752783496 -3.9866849767674393 4.706917815388558 0.8877970855865857 
3.52655690123132 -0.8088235856995519 3.811568254830543 -3.181917335783423 0.16362311587437942 1.851233458430493 1.7761226959206677 3.539063807748239 -3.8433146596215537 -0.2971367012225575 
4.971643768872839 0.5213367966858548 0.9467959469374742 -3.1605791750901355 -4.070870980601317 -0.6827888301617169 0.19556562326160715 3.705730972271159 -1.1568915914899824 0.33447392648611524 
-4.285279606000479 -1.9582539116085402 2.074696996373537 -0.8065735343280303 -3.191575851220637 1.7599170404709616 2.522793513409243 -3.4059192451928055 3.623129076430211 -3.4149600940933804 
-1.868356677524307 4.507825767528503 -3.522888348710008 -1.9745355247042666 -2.1060444864440835 -4.037498881582244 -0.7900978650330015 -4.610946236534316 2.8064644497258464 1.6053852843147538 
-4.923331339633585 0.9015153843329395 0.665526971252615 0.0660295826275309 -3.1011024161452743 4.4572780963067045 -4.599897926736853 1.320543432120919 2.0719468145433426 -1.9138716957423163 
1.5749485726775072 -2.4684161672701705 3.4470737142115984 -2.818155221318507 2.0203793979372313 0.5676687128208575 -0.6240579516335725 -1.4986909858226842 -4.274761867606002 2.098573436453456 
2.3526874052199913 -0.03485874317725121 3.3344870972606926 -2.4917371089994003 -4.846728204555375 0.4766885480097456 0.9265397265898456 -1.6949925679354148 -3.044700816032585 -3.6461777905413624 
3.267355685849902 0.8159403815863017 -1.5853012370176602 -1.3393482858087358 -0.45772273394506524 1.7845505991663742 4.111421506629347 0.291255892720761 0.9024268225458071 2.243298793967612 
-0.6838047382543151 4.952449492496917 -1.5608439056876042 3.297420987971047 -4.263050820692653 -2.556849883959615 0.6630306813427784 -3.495544521990775 -1.7308669515085697 3.8194192494241928 
-0.07277541426529029 -4.261523050666501 -2.0862941006075397 -1.5781241762162048 1.8424649391082797 -5.311307879172886 1.985527458709711 -3.3765623232039297 -0.24120276494347023 -0.30310599350312617 
3.0117757580513946 -1.7604719209913702 0.6244627021783712 -1.1289687971418225 1.7321799400820224 2.3385175847467483 -4.410675663484261 -1.502981587720636 -2.8354020901635426 3.6467744918451723 
-1.9432719830427538 2.908035183385781 -4.723518225678258 -3.2717450312126606 -4.120562528151587 -0.44070087986892853 3.99568703680315 -3.5014034452571163 4.233146564003914 4.889720356090923 
3.096881767968502 1.2218964178339773 0.9738658535965893 1.5372974979356766 -4.203608957237737 4.118238097152219 -0.612329728805401 -0.5379965112158667 2.536584138234076 -3.5451373950046583 
-1.4988307476959166 3.8016082974496306 5.588692386699296 0.6377579208269797 -0.5340137595432691 -1.8863613697872903 -3.2772258015400886 -4.4432071736770204 -3.7904298013574538 -2.1645402814876853 
-0.2563686275997639 2.7966819070584097 0.0537032406439764 -1.357971324133671 -2.2173359618674895 -1.1959297072239063 -0.09769300241150491 -0.8696440549720358 4.137415401826448 -1.9524225690446295 
-1.4886188506021603 -1.2134658771231508 4.30298631935441 -2.795678770250257 2.4968309891879974 3.2601079927167964 -1.052070830345747 3.6809598148239115 -4.179648781139766 0.5698219357551719 
1.059764148519708 0.0214638263941953 2.606449707572763 -2.837572665505019 -0.15709054752117566 -0.05681247834639684 1.2444386488757195 0.03590814533967224 -4.5452399008097855 -0.14809538345141712 
2.874001172486655 -2.242197017747586 2.9389832648691447 -3.7468611343810454 2.6704408346554485 -2.7104954426564696 1.8772504654402609 -2.0053266628985775 -2.2170431127216896 -2.2015380626681513 
-2.567621456645921 -4.16376776207239 0.251889802425179 -0.7693831844355205 1.1024619023019302 -0.09154585910419531 -4.02051975901983 0.4924681909715824 -2.3796056814438176 2.585845928495705 
-2.2708129234919725 -4.437140216711222 -4.364233921469364 0.37296381720726884 -1.6563933470356436 2.642654780214689 -5.075670366375183 0.3715449589014241 -0.11141230116979134 -1.877870598128195 
-2.989224880983506 4.8083439702764075 -0.40504289089756046 -4.501219340921505 -1.0738891281823881 -1.0201598105995704 -2.8837023771883876 -4.880938264223463 1.4469516289530433 0.9235671310420618 
1.5111429593516013 4.348222268882796 0.16928279868157875 3.4283275890176084 1.8710353941864517 4.143134513279338 2.568643571805347 -3.684193686935631 1.1941163615052566 4.628350328969114 
-2.2936692254347695 -4.063739352580957 -4.574844889484041 4.1860287298133985 -0.8582110655527911 -2.0826383466086957 -3.7292746745420033 1.3066318105051258 1.4118589359759246 4.920138345831222 
-3.3705610818739666 0.9134588397541118 1.0790987734548725 -2.376157615634422 -0.30710278555802584 -4.6153079351064505 -4.7277015166675165 4.56555253425355 0.7798441944997476 2.350319415391347 
0.9826051753622483 1.6673729241155602 -3.1339935905347818 1.5719595573309635 -0.29019498189298604 2.8958573273247668 -4.532276766487448 -1.2232986004940103 -2.0260558343382966 0.2341418417327776 
3.1633333118949634 -3.39470221537819 1.880639426743089 0.1482256034492265 3.6457523529026625 3.084623075241013 2.193310858471877 -1.752002799928745 -4.535706016636192 4.402770621552923 
2.6812937790404794 1.936198784487229 -1.9043553107149571 -3.422323435428494 1.5364122566767227 -3.3413282559475523 3.8329095426129878 -2.9097556349873037 0.352211424584567 1.5867634896597618 
4.331199076130131 -0.4458136173550121 -4.638678836894628 -2.360632059964906 5.030089612611032 1.176888885745043 -1.2234171663279836 0.032290401816390264 4.573000013971374 0.31637481924425737 
-4.081303639780931 -3.292138825896648 -0.08887137960315622 2.740023643043901 -0.3031989812555818 1.8338099338143015 -3.0315281986540112 -1.9133560986119014 2.426332900977837 4.896182896079616 
2.277939635448354 3.22435260363429 -1.0203575817440864 2.91754044277681 -2.6257247401448796 3.6433660107189936 4.064620728583553 -3.281315083792613 1.8309185698824257 -0.6081192298704978 
5.30210777428491 -4.0742295209232635 -0.9680312634785891 1.593930113153793 3.848716179478748 1.9273011906483417 -2.98113580327247 1.0040036887620778 1.23493000778076 1.615096655279725 
-2.7265579821851045 1.9610224607467521 0.8235695246415516 1.7617296102598838 2.340333212984009 -2.1296117525937515 -2.0166857020225155 -4.340888264115679 3.160421392676916 3.505868792350593 
0.7485782198522307 3.3980477787402195 6.170145041247471 -0.851067212747011 -0.7403948510949203 -2.24740892520116 0.032065258184026064 -3.3317030303562887 -2.8783398010264443 1.8995279551674364 
0.4383958024082848 3.8130878477325267 -2.8285349942981957 -2.466465335405606 -0.7942653234903672 1.2011838337239271 -2.697457137443638 -3.8332649640867844 2.0212019040249936 4.970773536569 
1.4466778881310258 5.046896854026127 0.27350265541462526 4.215958067126442 0.7281780996081179 -0.32649333372889733 0.6920613052098619 -2.5285923487398065 -0.759698635497483 -4.822722798301937 
-4.001409747103522 -3.7061968319685015 -0.35206439499080017 2.085709149065637 -0.3613590378684124 0.9883913475318666 0.5435097413852841 4.681205180102456 -1.7259224025983535 -1.0652580721388514 
-0.5695504114201545 -3.492896492016563 2.9592347670270422 -2.502506099969292 3.0549403771747743 -3.301511685845211 -2.546573431548805 -4.344292870414164 0.7939411366578913 3.895973128940424 
-1.0098945274967066 0.39302608904738806 -2.2163782992772045 -5.021076973019328 2.5052124818200268 2.8022826425096388 -4.0552797802812135 2.736198541841487 -3.3588020872112883 -4.898763509997806 
3.8101228534112592 1.196232469080761 0.22056251025897985 3.5917210638515273 -2.0950680239001964 -1.934691800048452 2.4283796769051578 3.951399302509994 -3.9339139757984687 -1.8813766740151419 
-0.9109144801872581 4.0350214368309 -0.8849231729547795 -0.12468370498323608 0.5860751577793506 -3.5628132705294178 5.008647163834486 3.881893920224009 -0.8721535617345161 -1.0624603589859447 
-4.73891476063024 4.26414388292452 0.49837726966523815 2.981415194359918 -0.08291057991782293 -0.5954886176520975 -1.4403136372736989 -2.217731529664902 -4.4329875441122475 -1.3098522054499115 
3.359803356991266 2.510306356488501 -3.568405294493234 -3.5956030347262677 0.8707400216440258 3.1929613544025375 0.3344174782032769 -1.1942424821184172 0.9053686634327962 -4.413453403246751 
-4.859292946586954 4.477165515953324 1.2640556128635843 -3.344234336708044 0.8326971072364863 3.747164026142424 4.132561927854945 0.5246124423105284 4.844029884205692 5.01547291139264 
2.033575250353499 0.8496255609763729 2.8936051553344253 -4.188196432974875 1.8706116249067282 -0.07350305114569684 0.9577918466557572 -1.8266882117267809 4.745475112614833 2.8468535077996306 
-0.7861295156809862 1.268002844701552 4.2059988948517715 -2.532649495213569 -3.9742533164022054 2.9601300745457397 3.8640807895765454 0.15498643055979405 -4.368489078056342 3.3978206818398027 
4.855507303729776 -2.630567828672618 -3.991448738914138 -4.328840003993484 -1.7831963738469594 -1.107024428725714 -2.408840513299882 -2.885580279108848 0.6229985698879285 -1.0891806197298117 
-3.677456183215543 1.7795650446822597 5.44929189403843 -4.459564138023533 3.216102648299358 -3.3039617816676787 -1.2977269156792475 2.33918611500418 1.8811022406541889 3.837259566182434 
-1.6456143329306767 -4.758882310047827 -2.836258386681912 4.299393641805932 0.7528158769893226 2.842853082349094 -3.669817050755658 -3.1015250831117287 3.9794105504359156 -0.2987994937979062 
1.2747341760135222 -3.33605547275518 -3.229124171212911 -5.326407439082574 3.6036722644855717 -1.1856580556527125 -0.31841275572434496 0.8967776026281247 -3.5981970934383956 3.330091048530072 
4.188922535399022 -4.452542845442099 3.1612674558816454 -4.90838536102355 4.034159864322293 1.5805199446068294 -0.7411352351494159 3.7626322248052744 -3.107824638694313 0.08357845533792256 
2.8720814144628437 -0.9858206436472382 3.7766169819579885 3.9535548602157524 -4.8337869539388265 3.9095678788384323 -5.273754599162109 -4.529924580464717 4.102536158721769 4.908367230992787 
-4.591814545706109 4.376122055496746 1.041715377438056 2.244303927077744 -3.8947558485136584 -1.2974611032039833 1.871204472481496 -4.504351281090306 1.6835373393103061 4.781436330480592 
4.159568736182576 -4.058098062459529 -3.014288704442169 -3.3847106766541546 2.1323016565405357 1.0319848729160104 -0.844662085082547 1.344406517994213 -5.162120115795924 -2.3082252990584142 
4.08992569343894 4.982185868110922 -0.4227131752864486 -4.382377493701058 1.2145755479448803 -4.944178822436222 2.4132521567068497 3.7626785174012225 3.9743825515490543 4.940808108208512 
1.7910087922684437 -3.53811471917894 -2.705757860259957 -4.2334767902889 4.364975516442437 1.562842524733517 -3.7238786027658586 3.0718704932315335 -2.8883247630591793 3.25359374444725 
2.816437007812471 3.618726941894506 1.4023793937419686 -0.5619594242427782 -1.3700024400135669 1.7541402059553863 0.9318824228734423 -1.940110201516057 -0.24567697373375963 3.3409856908179605 
-2.542942451288977 -3.8639102918834545 3.6027161073472254 0.1668449972442697 -4.356383079696566 -3.4976993813505963 3.541294811655953 -1.1915314166103963 -1.7584767800831853 -0.12507427141892594 
-0.9348865090113443 3.6534273793335523 -4.487542481825914 4.446254855092218 4.273767592953681 -0.5154884813638089 -3.200389891314028 1.2741143396120624 4.320858462522496 -0.2988767329184859 
0.8854858387384994 1.9323881125730817 3.8532275557461677 2.7511882268447168 3.6027006744556522 3.7137260937383876 0.6404613662749961 3.440598715481004 -4.135851647387856 0.04007406318055184 
0.11204684893248944 2.1120125598571997 -2.666930588056783 -4.487889884811926 4.521472022303958 -1.3976195769735666 -1.871276396202423 -0.5122333330670135 1.3426154031810928 0.09551982670253548 
2.007929526012758 3.653030208280878 1.814381237262614 -3.013595245466028 4.66292992946304 -4.1151433172968765 -2.079491901251487 -0.8213828542121496 -1.6943398822475122 2.253406879174129 
3.2227445653196067 -2.5690070971167036 -1.8560844637375018 2.1374035682815986 -3.0939130031689808 4.689973402027927 1.0331839154225537 -0.31977153816550574 -1.8490531247008817 -4.174567275912694 
4.779989037888953 1.014800120398765 -1.1330279793331288 4.655335422216401 0.6802125696369437 3.6398557573050256 -1.3679566975920328 -3.045892718567726 1.4811814888447408 4.8527681058295 
4.909314612298684 -2.8354607393039997 3.0369048393009956 -5.071074240898487 2.0708270476589146 -2.4305789428164055 -3.1981124792936595 1.681944966488159 -0.9929934503531057 4.323496276559733 
-0.9108106699003735 -2.5250840560858383 -1.1359105822123776 0.33772355853748703 0.6151488400485983 -4.231908196625671 -1.2537925861844117 3.223116214182941 -3.410816611575467 3.8712409819858653 
-4.302535945358422 2.6152621892267938 -2.260527995036735 1.9961084496063066 -1.5047015198297162 -3.9940304360854304 1.6921481332993533 -2.5916599173341996 0.23707103889127118 4.148863189602726 
-2.043533958550567 4.696763958045968 -0.22767200106486185 -4.477168840257235 -5.3294563340845595 -2.4096752400424264 -2.5330755086542336 1.9629658753934756 -4.2450604905719445 4.37997008184912 
-0.6578802726713292 -0.42848138366790506 -3.1483521351901422 -1.5832518411196344 -1.9105780332379354 1.8968432778186088 -4.1552458601283 -0.01742421517648751 -4.9082170975016615 0.8668489079063113 
-1.7030445329628743 4.7942931613792314 4.319382020684071 -1.660042892669705 0.05683691159924057 -0.4224526561583048 0.9614773280692915 -0.4453006954992942 -2.0971686148579685 -1.5156281538195333 
1.119743351281486 3.2443511418330524 2.451293550251713 -0.29531989725263763 4.991114064588256 2.8547021715863643 0.4233079700136587 4.136270009987232 -3.896353930035922 -4.194050803640535 
-4.78078144424361 2.6219980306696935 1.2248202221791937 -1.599807912976813 -4.519510835412678 -2.0627365491781915 -1.4740305267278833 1.4329697420357048 1.9835265526925447 0.012025758962834112 
-1.2932462087405951 0.11172825162366842 0.6816782728065968 4.161228942583365 0.3859977370314717 -1.1053645784888222 1.2419658886396567 -2.4062204397329587 0.21937346362685103 2.881165473263635 
3.9960105932185934 2.067926318184762 1.9985646384187348 2.2855918459631956 5.142821729039244 -3.111383682582311 2.937002922846249 3.0813827980405044 3.911255992904304 0.6667839114624254 
-0.26656670415180744 2.858488123916609 2.1157933362086214 -1.9093661584129094 4.026552937840129 1.70092464845567 0.42362237850568313 -2.094490397757225 3.16121643397316 -2.7580466714850678 
-3.712097439456592 -2.373715971384214 -1.2655912234200166 -1.3884582984480516 4.577428289256131 -0.8563006552844293 -4.786291570565938 -0.3785813587507686 -0.43436462428592976 1.1132637664789329 
-4.644513295525249 -2.0879628766123206 2.071715088551185 -5.139719694054865 -2.9726758617585567 -4.957374192289092 -2.5875716356194376 -1.1540963655035303 -3.043477601371392 3.1863316655325895 
-3.0607758764387807 -4.954196313382911 -4.039178447000191 -4.396202145153327 -4.201801605863751 -4.205295891529086 -3.939384384128183 -4.079583624061379 -1.8424493927982952 4.800408253982997 
-4.805948754690101 1.3836502649069211 -3.9157781427621052 -3.0414862280939894 2.4456714939099253 -3.662693536565041 1.0648759620524135 3.670990674536698 -3.061383566639028 -2.1681622908285214 
-1.7072025308309517 -3.064251718372709 -3.2165202087256577 0.6629713586064374 2.1025579859484074 0.9299818317696257 -3.379538120709479 0.5753441859865065 -3.200116488470581 -4.194258971327981 
2.4503916340416088 -2.7671887529865655 3.3766113954556407 0.7600404806271993 -1.2291034195554151 -1.746913505705419 -2.186518801200875 0.8105486114569882 -0.9115791205118208 1.991529321363154 
3.6872355823112994 5.33002417611485 1.7949195634289377 -2.5579728870145733 -2.5304655361501927 -4.7210067266960625 -3.718667300124377 -1.8956812295349652 1.0407926333835769 -0.42948512616150014 
-4.422731024022375 -0.6105757488561278 -0.9046942296463159 -1.7814246194170533 1.4047316553116997 1.5021119491327688 -3.2680571617610092 3.4459468063261585 -4.171813512880341 1.4219671275377403 
-4.54827956326362 -4.4361635443506 4.029572823613382 0.7526191496165927 3.7210512426234263 -2.0820724857309565 -4.160124047843216 3.5883136702548586 -2.3460012667752705 2.925068612305964 
-0.36481115878067616 1.472527104677818 -5.613159478833042 0.06398237267928901 -0.09203743610097415 -5.1780139079947 3.026184885257655 -0.8856300757400404 -1.3975637743589004 4.3685597083867025 
-2.0014756014591453 2.6759488468237547 1.1823909552951242 0.12456799745651863 -1.3081625668807588 1.6896370024244445 1.9727923293640852 -0.05353120968455185 -2.5338792292359678 4.52015641054661 
-5.475487280928892 5.125089606148999 -2.785719799122848 4.917838166023655 1.2382765395045914 -1.896764599563539 0.8550674209936922 -0.9305669560416081 -0.9455555521363219 -1.381782162061706 
-2.9923177109735746 -1.4438759666625613 -2.446930537645263 2.891561857031633 -1.3434508812797863 -3.7143415069336316 1.6907840782164432 3.3183534191521136 -1.2039112558905143 -0.9866451179414284 
0.3091383220701043 -1.0611981431930486 -4.220758426533112 0.05879831617004514 -2.223444832652771 -2.0497995690469417 -3.3231784705571403 -1.0267989737054595 -4.352595370374408 -4.774658508780669 
1.877755849245511 -1.485455719239714 -0.13970056604374578 3.0256133568609043 -1.6392117891678954 3.2643863654564953 -0.8944453597898586 2.4951500332689647 1.2717724511079516 -0.25224371221092373 
3.498774544247299 2.8550436886136477 0.16752818435445585 -4.2861887192616095 1.820094298189864 0.4492536013706603 -1.1600309438177845 -1.1314852309770753 1.376920584386591 -0.9931136184309547 
-2.0016990505943 2.816427486388537 2.331157290603074 2.6796533513054235 4.812724680570947 -1.185450207861929 1.782578939613017 2.9067661833831138 -3.8511873555375375 -3.467038686347472 
2.9967831088878407 -2.971364736484235 -1.1706616607048956 -2.0547124639899463 0.2786472074847994 0.9651337194325357 1.7570176793491992 -0.2700571768498443 -4.589140716644411 3.720708857741293 
-3.8639434590422805 4.820316713974447 1.7054977298301033 0.392179171300108 0.748017856716834 -1.7841643643590324 -2.9301014164113903 1.8402282679655704 3.561956466221173 0.22787562007049597 
-4.382137439534451 1.6024663476110024 -3.9054763432439636 -2.0001506597272694 4.326955567692433 -0.7733453607029471 -3.4461371881930436 -4.511092417526899 1.3352840423785397 2.5760434687156266 
-0.13086563326871023 -1.651260106283883 3.999099655146357 0.7996359187350489 -0.49223570716308634 -0.7075484521863091 -4.109469056231926 2.5928128355247595 2.930462267017033 0.8173774730410381 
3.3539564128089747 -4.308095221901575 3.3475410582181144 -3.2129239202850557 -3.589251824766312 3.0384065858192386 3.6205535611999395 5.8391034644625135 1.5929800974793384 -1.9093177796899428 
2.5659256472439433 3.715947828063801 2.870494432559504 5.304665067385864 0.5954717295913857 2.9221428230109865 -1.7784507473499107 3.063303544427873 4.59079485337262 -1.3912117897430223 
-4.535246825539251 -1.435797318782705 -1.143925338714189 -0.2264355926967429 2.9647080265980974 3.2327532432125574 -0.29937227252758314 1.713430542813555 -4.252186587946336 -4.608902959221283 
-2.725623002064923 1.2228262281481102 2.2630944092341783 1.2993658421487988 4.565340578612925 2.4750816450985877 5.156244657518505 2.492914262026457 3.0677936259782883 1.1582433057256074 
-1.53721451527197 4.405016950250635 2.8051588132979792 -3.6989129004227985 0.5307170465107001 -0.5887396260494232 3.1383462999065834 -2.300056451152781 -2.2083896470714266 -1.0057741273484118 
-2.4280539915852466 0.13385012351716485 -6.033343700558621 3.120167992744938 3.18284540682905 4.230653009566608 -0.5718066806822735 3.9012733120914422 -0.3937401934599218 0.7115302831079365 
0.8490493337087893 -1.6363690788817817 -3.825661137370969 0.08961798082666263 -0.0029764948145369883 -1.5434808149183588 3.976679175846081 3.9319302601674515 -0.911202316787508 3.3428230816808595 
-0.8704520151400162 2.572728764221434 4.402457729726142 -2.225562635485688 1.3773769895518397 -1.1857083645204298 1.4869382558243296 -2.040666415634076 2.8753645031982638 2.279346863500222 
3.0102447552975446 -2.3591723462465093 -0.7033009821731209 3.4866717533943823 1.1687809675512548 3.558324378358942 1.341713363887043 3.7777013287448584 4.398131025424618 4.38873016375985 
-5.043359715112011 2.9721934870164253 2.981126251806371 3.9671388772614855 -2.9043790954926374 2.3479525020825673 -0.7274730010887899 -0.8887964264862275 3.904451692835635 -2.154621268687175 
0.19518692359679024 0.22322813799468186 -2.4126380461819905 -2.835187883010715 3.6668177482384134 -0.7145885577963845 4.242743642692246 -0.6975288851122653 -3.1877525301449636 2.357237138783445 
-1.3518996774214485 4.667731170194074 -2.5904540607510786 0.2293261225886883 -4.780949235444826 -3.9602043406090788 -4.125168057710272 2.6380975508287916 -0.10693334296781914 0.8010526998254326 
2.076178804767858 1.70370248346638 -4.193444689196763 -4.988876587380488 3.838693560184572 -4.322896216414614 -0.3227314025278651 -1.2078549455436272 3.798411922987785 -4.068486523350754 
3.0675999858812677 -3.345214221561017 -0.862311911201034 -4.410529404671011 -4.799137309212854 -2.945680136167932 -2.9785653249617288 -4.719048254930131 -4.779651418267448 -0.91284979454587 
1.6942959166069285 -1.216874984171825 2.8643176741614274 3.9615094675981535 3.392102971764143 -2.57162716697872 -2.609490384487963 -4.821338740944031 2.703984082213824 3.825277560699469 
-3.8516289551422935 2.0621028172392086 -4.576125149448862 3.064936785937557 1.0198804464694362 5.464418396022193 4.277346728537954 -1.5943076046937026 -4.699351088153588 -0.31002959219881554 
-1.7796995149821477 -1.7962358319296066 4.221390770845355 -4.04767056960624 -4.92064071103837 -2.9678514183549054 1.2612655360713791 3.5324204190268684 -1.3883035845797511 -2.756263136361684 
-4.742503555791815 -1.2854356809538907 3.2990317986090756 -2.6405665595243497 -1.3414282378030624 3.5375157704951956 2.3819329635987745 0.8438447710790629 -1.6914667483959664 -1.0140741181495514 
4.670644413911662 1.8519349848820317 -4.948864774875628 -0.15010887802171446 -3.3322251041196 0.5190204906010173 -2.4595768146539454 2.389698121963855 -2.551169406423463 2.107899231213813 
-3.769914302200143 1.2162446227631734 2.335102029796433 4.5310175550109175 4.672456333637555 -2.5964999461890486 5.160515112045235 5.38168490083358 -1.6766814651434379 4.212956670618311 
-0.6416912303430595 0.9722451205893783 -6.132451769470059 4.44760520018724 -2.6613928106389113 3.0955403868718148 -2.3718476099778902 0.08359097186404249 -0.37184889307529645 -0.5108009908575539 
3.4342776382913236 -0.3424351697841431 3.0347701909247236 -4.505816341673521 3.9809654398905066 -0.6937709403209885 -4.496252593212365 2.641696276504653 2.4277656587406757 -4.609922833624469 
-0.03653677923050882 4.669275023286261 -1.575423373982948 3.524497065701874 -2.8405908107703395 -0.6047269693013371 -3.8184821135678573 -2.7511978789887754 2.0630648160869836 -1.5023600078228914 
-3.5576819438430576 2.6588775258542436 -4.444773772836832 0.1894164190363393 4.144824906767618 -3.171859076675863 -2.000447911078945 4.548974254501 4.025302501815168 1.5012133651508741 
-4.085782102200053 1.4662131217237433 -0.03805396575446436 -2.5373862726331473 3.8596574339066834 -1.1306278988144838 3.414170552193508 -4.298902944230438 -3.4785603499573585 -4.552544472853108 
-5.359628817703412 -4.817518841706658 0.38392273915573083 0.7900856184184845 -2.579225189535664 -4.332556714109516 3.1559544148031216 -0.15073187449006203 -1.2282348521309854 -3.8644119282846394 
2.1593342968170606 2.955293309593709 1.0997336000991857 -2.752045382723954 -3.940196750142038 -0.9758503708767987 -4.192261208734132 -4.62717014438973 -1.6342576697193336 -4.568235330252645 
3.6451773543530384 2.419195668349596 -2.454005628889798 3.046071599170196 -2.654023337406135 2.9052514592453615 -0.42109322363364565 -4.585476365263751 -1.433612786737529 -1.248302915895648 
2.4815893724716562 3.6282384183023577 -0.7140274574575948 4.027592002073224 3.793802425033279 2.1349260193266595 4.908275187524635 1.8117992912709189 -4.278716041055533 -1.216277004074714 
0.35791668136377075 1.9074006718115757 0.6801452741850912 1.0285300046122132 3.4286605457057666 -4.458190053220431 4.184549768664432 -0.9287146712777975 1.2866670286736333 -2.339034040049641 
-4.229996017446274 2.6014800093125547 1.8126802234540973 -0.05998383233436642 2.402565824657104 4.556654019035527 0.43878330364882534 4.610923474033687 0.8890315957877591 -2.5406987159569603 
-3.1070506612677344 0.26908522201013046 -5.087806259508426 -3.4636956284555893 1.7544422236089081 -2.5522919664880286 1.2339701355296882 5.201251436315834 -4.133665822055696 0.5109134982373538 
-1.2941215730271083 -4.570846597580243 3.0807092490578776 -4.054616086828547 2.292556615637969 -0.72748008557954 0.3762718241397251 5.13899549986915 -2.7533826813944975 4.025642114935776 
2.754937995560544 -3.5841129896485056 -0.024549726323873526 -3.615667354719895 -3.75801228048453 4.792482169151743 1.2452803549315652 0.4955793135943588 2.8146753782958633 -1.7354354752106926 
-5.038873992467208 2.2972084657111695 1.4550703066635304 0.030435788941779677 0.31852200569156325 4.088308065136301 -0.6625020336791897 3.993864403302752 3.127967535496999 -0.29643789872389614 
4.995032766598436 2.203753053608488 -5.5472664706326436 1.7537618345407318 1.2025928839926436 -0.6058173803877264 -2.423555467413478 5.091328739599169 2.9284864015507024 4.670273605825004 
-4.574243000089304 4.00395431523601 -0.8210851546008502 -4.547733070986507 2.312689424158774 1.7138224345005246 4.636084172248409 -3.667031132616868 3.65841134112586 4.293872758375773 
3.9910752028373766 4.178762179922314 1.9059397479333189 1.9382376675338366 -0.7324145984769405 3.130237234247452 1.230122501885094 0.11538708244563581 -2.9741286822409316 3.80305471952024 
1.888807939345083 -4.244992904649271 0.5892723112553451 -2.729113029803146 -2.962282990506725 -0.8387048078164534 2.507072222605143 0.4274772116493729 -1.5375906529897316 1.7027967442045304 
-4.589654025576415 -4.637394041955061 -3.1081339008031175 2.0607504194540467 -5.019019096590338 -0.8374422139060593 -1.6151674660414244 -4.274129862099851 -3.753211331083574 -2.355478137905448 
0.5503143280552617 -3.9519468901070725 -0.33296175264413885 5.215489291639519 4.406691201366775 -3.0901798050317235 0.1730773936590938 -0.7706223248305695 3.0239704414539577 -2.5548324207491575 
-0.6885151996644837 -3.2195834320163192 -2.5238837903231395 -0.6413354826696731 -2.7863029992333774 0.7456931962442153 2.7867047835487186 0.3418777634422735 -3.9244708253250726 -0.9535095875782279 
-0.0997007341696197 4.729521102884685 -3.2077526921054247 -1.3986604890220455 -2.419961683816719 -0.21648295816926152 2.1870732823100494 1.9585789936270181 -3.8392618885263685 0.08558216448047289 
3.455678056109002 2.8964397563143423 -0.8381565745906301 2.9873930273360405 -1.825350919535884 -2.750251631129232 -1.6010721849890779 -0.9632931420678322 2.7321211046890963 3.421656388557307 
0.14324477174908468 -3.872728561632037 -0.8342085511790504 4.516647375397435 4.334668338860583 -5.095363371110478 -0.1036532986525565 -0.9727276412890745 -4.659306260761063 -4.0178998435702 
-3.902224677990571 -0.633200925113382 3.0561854772582846 -1.3814847268632087 4.028001921015767 0.9318787132028711 3.750727860888182 2.92199335697203 4.163779348169499 2.2895882724550423 
3.8757738593248687 1.2592823665446609 0.37981117238286405 -1.9802772521211518 4.9519264359326005 2.7229404364502496 -0.7818132107954756 -1.5542227027261915 4.575900030424553 -2.291399268145517 
2.1635438148507413 0.8927498726941706 2.1839927668770915 1.2430159596736063 3.3094925090530123 5.380602867533797 3.2426671512262355 3.222397342208543 -0.06619284574946739 -3.687341954252078 
3.4060082390426727 1.4340654508071433 -3.46989038237274 3.488986207545164 -5.064673067117505 4.4568038958765985 -1.1990473932587893 -2.3506391237181647 0.011082041130274127 -4.702763907370291 
1.5509500692265785 0.7821636568732037 4.261159086091326 -1.1534660579725151 -1.3875896934558425 -4.187728249387314 1.089176791314916 4.470997492996144 0.26845871780518615 3.6115389803420754 
1.6406937797586691 0.40797565108613243 -1.0698545956639653 -1.2198792307522546 -1.0515355936932438 0.023819395401632044 -3.490296781604169 4.5792218322739675 -0.34024859288169745 3.6501025667064693 
-4.199461395485306 -0.8506279515067426 -1.5850148950086247 4.7413126854550445 4.030762028212966 -4.201114322149261 -4.040838182659197 0.8063139711884427 0.6056836282366391 3.107526567926875 
3.798713737766115 -0.12127071100616177 0.006912592503559063 -1.3595851598777227 -3.4425806211543706 1.0982390530528559 1.7375807109964254 -0.8909766299349247 -4.86855114560292 -4.194383884213522 
1.478882851944492 -2.867617926534509 -4.490596762602028 -1.2588391313451337 -2.4757915766667296 1.7754193815059969 3.5850102316787242 1.3646750154704008 3.4621888860867154 -4.585998407121572 
-1.9017691271104584 1.3529060235885102 -4.361483438737457 4.057184070605619 1.2792444360227473 -4.338986905756735 3.413858063348467 -3.4307381659087453 3.2840967699083903 0.12150292990085033 
2.5054576922442306 4.68991378932328 1.148207663520623 -4.0641072521911825 -3.969646132408997 0.5752475456579168 -1.8020777455144703 4.583262510473725 -3.994897906361804 3.223760137333423 
3.637058734258419 3.8517280146064934 -0.6883989976569072 -0.0043644496801482895 -4.048528869072167 0.9917303782474621 3.031090050780625 -0.8833298285790927 0.9319127363017587 -4.340846198694129 
0.6804165761293763 -3.433608721600976 1.7722833023330906 -3.659535501052882 -0.9889148837465103 0.5591657594827372 -1.6979694955934386 -0.6863637962981848 1.7911157728032532 -4.55452320346085 
-2.312211462444853 -0.07312396770819937 2.9777882678125382 -4.263565053052238 4.070856625715879 -2.664836284037346 0.24443338719519053 -0.9717589747573339 -1.1509834684128997 -3.235760699426215 
2.467896350753088 2.46007579783526 2.662383381934747 -3.8885063188721225 -4.651035115649012 -5.360636211097908 -4.1974054862622125 3.8348814124136363 -0.6840599374340993 -4.611842453504242 
-0.8159268837037821 -1.8601711031204027 -2.098016062086252 0.7104407389430621 1.614441507385375 2.327475122795104 -3.1272613102514564 -2.9940557654648052 3.8252162703595523 0.943496737405141 
1.9988779477391794 2.9964269039029983 2.864203368294102 2.3249708230543766 4.365478178905727 0.9646102631827843 -4.577491027299856 -0.35314743710496693 3.673163898910957 4.080881315261105 
2.9474931362077563 -3.254374083613919 1.7329973147192994 2.3619001966479556 4.731818028916199 1.0012459409771692 0.8211146688451941 0.46876294982066213 3.5209719198621294 -4.887753611723609 
-3.9414815715713 -1.9070704737568538 -3.6014636935012123 -4.62827265843555 2.618181673190355 -1.8954850138621306 1.3551010449890752 -3.643896859536979 -2.7413033400240523 4.893249379286542 
3.759754122564259 -0.7942624674105543 1.344526373902422 0.6467289162869967 -2.1531416574735336 -1.4721346672216538 -2.2066599582784625 3.613475171701475 -2.7896450282438834 -2.0547391125795293 
1.0951862172801796 4.157779475132498 -3.8112056749652834 2.8636835403280188 2.2174697011581044 2.3560960839188745 -3.277360148870813 4.210707679528142 -3.587520650872512 -3.222162432129406 
-3.8826110467171717 2.045384367677287 -0.9294110876327005 -4.550462147111463 -4.554296229476966 -3.9863197665066914 -0.662147155551968 -1.416347519800539 2.452745805271298 1.9186069849619245 
4.70275201536961 -2.506592791205945 -3.828018418109036 -1.9200036303961667 2.3250246401058408 0.3598678180619529 1.0954727048531416 3.1305310042217513 -0.6397243973889747 2.248312756100543 
-3.8537552194506874 -3.171832854345226 -4.273597565883647 0.24235410573467103 3.8548438063731103 -2.321710557051573 1.7935557671596356 -5.128726116253716 2.6772429686340597 3.200071251070295 
-2.7238697440231654 -4.312927430496296 2.9823487792501253 -2.5214574417231432 0.851469587565466 3.026377353908402 2.6781441909002286 0.5005165602071953 4.622736616201981 3.2241834564570744 
-0.33305288359677593 -4.380169013385879 -1.8068491438765735 4.757035931284595 3.4499102300550337 2.9287418790026183 0.5708852211215942 -0.17825749171762978 -4.681455422656821 -4.307730245641986 
-0.3032944368428779 4.252099663316171 -3.755715421948434 -3.85883197742412 -2.0072668003570215 3.1065656829884656 -0.041333216687131046 -3.4076520019006677 0.32516448832264827 2.8803520624482086 
-2.622881251212666 -3.7126492296539038 0.7469821799631614 2.72512550847383 -2.610819112977691 -4.7299509776125594 0.07796404056093652 1.6011503516012868 0.12853337075056362 -1.0536984092700947 
4.730594758338693 -1.7658144155674012 -2.7027547438689727 1.2535299249284966 -3.0144878577790406 -4.754354877900208 -2.5245450413557085 -3.798158864897918 2.2525334923133977 -0.0313284978970849 
-2.768916705706906 1.0723197719939352 0.9022176623288113 -2.07415779420855 -2.459248416161481 2.1418192466925388 4.449565410924415 3.8692359696317675 -3.5131972701523746 4.414069868962367 
0.3261847218046265 -2.1775957083961686 3.6137623464004474 -1.104518497463805 -1.3799353830350152 0.765212944398497 4.9404907449681925 0.02889905510636832 -1.010511656660966 0.21076354974809264 
-2.397505012957709 -3.864265710346369 -3.594107201055473 -2.1254106738868908 -0.12845213801548852 -2.0301311544867207 1.7699059566255322 1.192923958361737 -2.135375262370478 -2.4331881990969215 
-0.7289344089109635 4.91343820320444 4.155494196051521 2.3853962874007375 4.219351164516425 4.2089651279693525 4.731854326124809 -0.23077301928041719 4.288663691292228 3.6951027911838965 
0.9601926015469077 -2.9818132287584542 -1.4637212127742498 2.4186874225408417 4.9319783420800105 2.7493308782423163 3.5558647969040016 -4.421535966005656 -3.7911385522785044 3.5241760517297767 
-3.2853861755008826 2.948405917438341 -2.4489325208928054 2.935667325024592 4.591051699876495 1.5154472580205958 -3.799727849893866 0.768719387782292 -0.09113401811519191 -4.277264823028965 
2.7909334793700507 0.5947805184243506 -2.8278747725718105 1.9673683582614703 0.11030191242457195 -0.3489374811041304 2.654082732006044 1.1002122505721006 3.6246797038055782 4.774978407132223 
-3.657876736019659 0.5886700338368391 -0.24104897875152426 -0.11572770859157529 -0.8924267820908272 -1.4638006321960635 -4.896724519803932 -3.905956341275314 -4.278322449720747 4.295047618419795 
-3.3266972089931066 2.2159448495872804 2.5427178638086843 0.8564502866453606 3.5947072398582613 3.0067980122631983 -1.4907723267283817 1.1851399179850886 1.2556813524478183 3.788464259824664 
1.2851502715758425 -1.530472841181529 0.5659465091148633 1.7884209863088847 -1.4824358876350652 3.550764514323063 -1.5354188211019997 3.1789055319419908 1.8804426776029677 0.32801046429400743 
2.5970586898412864 2.7936869267138995 0.02020963599764779 -3.884487358366337 -4.42704945425738 3.638704898748674 -3.2246732558125526 -0.8829805555104244 -1.3681862464116492 -0.6219609200160259 
2.7537583434539994 0.20546253063831132 0.23147644525282082 1.2839404457513748 -1.172594717663774 -2.380818621658686 3.2645918837517387 -0.26702353345807955 1.5123509918265905 1.2355628949575321 
-6.115819936323523 4.862565528579849 -1.1290887885136092 5.358693910062243 0.760112791455958 4.200386141960921 2.695201874652732 2.907811389504923 2.3834267128559543 1.1878203934505902 
-5.015432146367032 -2.062099660057151 4.688180839581177 -0.25315837864930124 -1.7518622462305855 -0.7993532972553253 3.6241772242308885 -0.21842171113885875 3.195084245847829 3.5497028607375682 
-0.8436853819592419 2.0662018084870204 4.376736784234632 -3.3084859027354327 1.0416737125989286 -1.2743918611110434 0.5117724152036773 -3.2670391824091967 -3.6015485793928086 3.6785574859426955 
-1.9968393058594383 1.8397685326299238 -2.019430073141429 -3.049031995757413 3.5220185722107917 -2.5118304724132723 0.3151719908244637 0.5210898365834143 -5.194674954853553 0.8621709593644233 
2.105584937965079 -4.398629271945018 -3.6672869818488576 2.522118861388214 5.0041065882656115 -5.101423383257559 -2.231989650817229 2.9813846991894035 1.581971257758704 3.0006404275768874 
-4.340234162701278 -1.667434146366176 -4.12210323452249 4.176700581105455 2.7463735643901455 0.7362817782328428 -1.6617009496143786 3.3318168753545043 -1.1628855436939727 2.263837170405965 
-1.7857095340597817 -0.3187209582348503 -1.8975728635256852 1.4601627227474137 2.9505139896252106 -3.4417155331842073 4.135283330984379 -1.5011888961344837 -0.6130802252002616 1.9637179737860004 
3.6217742892543825 3.9661938116028432 1.3666193157328368 -4.77770935100425 -1.4899043544496446 -3.2111224676853674 4.982674906811531 -3.782419272112845 -0.23659058817175016 -2.8378390608013335 
-4.922971347857436 -0.5241058903465973 4.232963530231718 -3.1148012912856555 2.7136209478006856 -0.86904838336634 3.164266517958679 -1.7301098893312106 2.359707815074692 -4.786176006009631 
4.868147989125464 4.753767547219936 -1.2225872389710881 -1.3207980400489734 2.6343556492573046 0.8565303274445147 2.62357506835951 0.705318245978527 1.1356169297476069 -4.662688544244022 
5.184442470847275 -2.699246655586239 2.432727242221617 0.8529125842826212 -2.2952985422001224 -2.816009847690647 0.1559315721717125 0.160125637583856 -4.626549803667895 -2.5178872077853964 
3.7705914972900696 2.487632315503769 -2.5226727248406746 2.392276168027297 0.9571395509957347 -2.093483413555397 1.4375626769197014 -2.986076772598314 0.7226819859913626 -3.3663663275197364 
-1.5086374768449995 3.7956791024217353 3.429414852801035 -2.515042594020867 1.1303922435909917 1.1950588572262897 -3.4067095123809246 -2.7779533111499477 3.471693823110807 -1.5842618245205589 
-3.358220720944708 1.2930005390280925 3.1199175674364295 1.4228233256545564 0.4546989572053894 2.0837220237503065 -1.678852029008826 4.84348341205511 -3.1652410557215953 2.848828567497975 
-0.6582879454124066 2.8373969688495304 4.17003640626768 1.6737811768125044 2.168598242429562 -3.528963340423088 4.609949700142904 2.9594981616579945 -3.943906663590833 -4.268017506188509 
-3.5585466367899756 1.2097393251199962 -3.0120209816347256 4.180055571518138 2.847849800049208 5.288446757767743 -1.7091368855072835 -4.317701451263082 -2.2375556161536885 4.593691764375373 
-1.4063785790723211 -4.686996956297687 1.7415742441412163 3.268697052479337 -4.121725518577531 4.11687736031311 -4.713508611632274 -4.164968536656261 2.3803708697535484 3.632741312558263 
-2.3100895433778166 2.426757405122682 -4.271923138020173 -1.6045926538343234 -3.598432297217229 4.330374350781702 -3.767879619591912 -2.0059392447051576 -4.508087031764401 -4.323009537820516 
-1.5539731142556044 -0.5471968337018145 -3.522949661827667 -1.3878211318404512 -0.887824501789282 -0.2537575398989785 -2.24225387991514 -0.40683297987980194 -2.373730383883236 3.8529745757024783 
-5.968198931505444 -1.195371931338274 0.7577797453042937 -2.964111171672124 -4.6913796557636065 -4.553577860922638 -2.8685872070842477 -0.9147713368326293 3.2909734805078372 -0.6158998610340459 
-4.4869598913780955 -0.46537448607730647 -5.067290884208086 0.36673284970562675 -1.2540477849987934 0.9165031584816631 -1.9068735981200846 1.710472919080006 -1.4333873866319558 -4.252812317446802 
-4.067941863099358 3.666865003014551 1.694624944964728 1.1697182355820268 2.1835898399839326 2.5270535575590345 0.012022744856770295 -0.84190921761951 0.7092200061902016 -4.722990058760069 
0.36660752834249366 -0.3530867552953282 2.163841981344544 1.8801641358643542 -3.962171562256625 0.3696253105931978 -2.5318130287907863 -2.5036327085565087 -1.452484469016292 0.49931972856173695 
-2.904321905204301 2.505099772517489 -5.063062470085414 2.355966337429615 3.00778599949827 3.85023281783528 1.4575399332152816 0.7025871872266914 -2.05311146928217 4.285574246605508 
2.081018905876408 -4.4161661532581284 -2.211870453613073 -2.115353295518795 -3.693915522672088 -1.1977383387771043 0.4452831139677472 -4.782943659069107 -1.0537829975527047 -1.754399045638436 
-1.1414707403219726 4.4042192533621325 3.635799186367496 0.4501553350981471 0.6428328024151044 4.98339479190401 3.8704397669137798 -4.785927444073024 4.06204037827729 4.658876805637183 

-0.1283715252615671 -1.4527972612624025 1.0217288849652228 
6.515551773829647 4.056136837416647 5.1474648625113915 
-2.8453407379644373 1.6930198264691343 0.9560268006561712 
-0.14712580868772526 0.5630498058585709 0.2468969621128387 
-0.09579649449840033 -0.2601966039956692 0.789038423271136 
-0.4815282290591934 1.1890047393652285 -0.6422191248964776 
0.9111402508975707 -0.32482112563625737 -0.500336403976505 
-0.057155287032127855 1.3732571411983754 -1.3311877534512744 
0.9070671982871925 -1.2746647027919369 -0.014065002743589626 
-1.0402647853204186 -3.437275455237642 -3.3140609842710975 
-5 -4 -3 